<NeuralNetwork>
    <Inputs>
        <InputsNumber>20</InputsNumber>
        <Item Index="1">
            <Name>input_1</Name>
            <Units></Units>
            <Description></Description>
        </Item>
        <Item Index="2">
            <Name>input_2</Name>
            <Units></Units>
            <Description></Description>
        </Item>
        <Item Index="3">
            <Name>input_3</Name>
            <Units></Units>
            <Description></Description>
        </Item>
        <Item Index="4">
            <Name>input_4</Name>
            <Units></Units>
            <Description></Description>
        </Item>
        <Item Index="5">
            <Name>input_5</Name>
            <Units></Units>
            <Description></Description>
        </Item>
        <Item Index="6">
            <Name>input_6</Name>
            <Units></Units>
            <Description></Description>
        </Item>
        <Item Index="7">
            <Name>input_7</Name>
            <Units></Units>
            <Description></Description>
        </Item>
        <Item Index="8">
            <Name>input_8</Name>
            <Units></Units>
            <Description></Description>
        </Item>
        <Item Index="9">
            <Name>input_9</Name>
            <Units></Units>
            <Description></Description>
        </Item>
        <Item Index="10">
            <Name>input_10</Name>
            <Units></Units>
            <Description></Description>
        </Item>
        <Item Index="11">
            <Name>input_11</Name>
            <Units></Units>
            <Description></Description>
        </Item>
        <Item Index="12">
            <Name>input_12</Name>
            <Units></Units>
            <Description></Description>
        </Item>
        <Item Index="13">
            <Name>input_13</Name>
            <Units></Units>
            <Description></Description>
        </Item>
        <Item Index="14">
            <Name>input_14</Name>
            <Units></Units>
            <Description></Description>
        </Item>
        <Item Index="15">
            <Name>input_15</Name>
            <Units></Units>
            <Description></Description>
        </Item>
        <Item Index="16">
            <Name>input_16</Name>
            <Units></Units>
            <Description></Description>
        </Item>
        <Item Index="17">
            <Name>input_17</Name>
            <Units></Units>
            <Description></Description>
        </Item>
        <Item Index="18">
            <Name>input_18</Name>
            <Units></Units>
            <Description></Description>
        </Item>
        <Item Index="19">
            <Name>input_19</Name>
            <Units></Units>
            <Description></Description>
        </Item>
        <Item Index="20">
            <Name>input_20</Name>
            <Units></Units>
            <Description></Description>
        </Item>
    </Inputs>
    <ScalingLayer>
        <ScalingNeuronsNumber>20</ScalingNeuronsNumber>
        <Statistics Index="1">
            <Minimum>0.013434</Minimum>
            <Maximum>0.155081</Maximum>
            <Mean>0.0437848</Mean>
            <StandardDeviation>0.0343019</StandardDeviation>
        </Statistics>
        <Statistics Index="2">
            <Minimum>-0.769239</Minimum>
            <Maximum>8.1985</Maximum>
            <Mean>5.18805</Mean>
            <StandardDeviation>2.14296</StandardDeviation>
        </Statistics>
        <Statistics Index="3">
            <Minimum>-2.19139</Minimum>
            <Maximum>1.45028</Maximum>
            <Mean>-0.143306</Mean>
            <StandardDeviation>0.738869</StandardDeviation>
        </Statistics>
        <Statistics Index="4">
            <Minimum>-0.739927</Minimum>
            <Maximum>2.5588</Maximum>
            <Mean>0.530431</Mean>
            <StandardDeviation>0.508395</StandardDeviation>
        </Statistics>
        <Statistics Index="5">
            <Minimum>-1.08594</Minimum>
            <Maximum>2.49429</Maximum>
            <Mean>0.150566</Mean>
            <StandardDeviation>0.538974</StandardDeviation>
        </Statistics>
        <Statistics Index="6">
            <Minimum>-0.742669</Minimum>
            <Maximum>1.87823</Maximum>
            <Mean>0.360926</Mean>
            <StandardDeviation>0.573931</StandardDeviation>
        </Statistics>
        <Statistics Index="7">
            <Minimum>-0.878541</Minimum>
            <Maximum>1.65644</Maximum>
            <Mean>0.274492</Mean>
            <StandardDeviation>0.433907</StandardDeviation>
        </Statistics>
        <Statistics Index="8">
            <Minimum>-1.29698</Minimum>
            <Maximum>1.5413</Maximum>
            <Mean>0.294764</Mean>
            <StandardDeviation>0.469265</StandardDeviation>
        </Statistics>
        <Statistics Index="9">
            <Minimum>-0.915278</Minimum>
            <Maximum>1.24879</Maximum>
            <Mean>0.153867</Mean>
            <StandardDeviation>0.414295</StandardDeviation>
        </Statistics>
        <Statistics Index="10">
            <Minimum>-0.903791</Minimum>
            <Maximum>0.917391</Maximum>
            <Mean>0.00480541</Mean>
            <StandardDeviation>0.327335</StandardDeviation>
        </Statistics>
        <Statistics Index="11">
            <Minimum>1.18368</Minimum>
            <Maximum>3.1056</Maximum>
            <Mean>1.55643</Mean>
            <StandardDeviation>0.373021</StandardDeviation>
        </Statistics>
        <Statistics Index="12">
            <Minimum>0.002621</Minimum>
            <Maximum>0.056234</Maximum>
            <Mean>0.016038</Mean>
            <StandardDeviation>0.0105245</StandardDeviation>
        </Statistics>
        <Statistics Index="13">
            <Minimum>2.79393</Minimum>
            <Maximum>5.47709</Maximum>
            <Mean>4.02595</Mean>
            <StandardDeviation>0.552403</StandardDeviation>
        </Statistics>
        <Statistics Index="14">
            <Minimum>0.050469</Minimum>
            <Maximum>1.10802</Maximum>
            <Mean>0.198772</Mean>
            <StandardDeviation>0.16879</StandardDeviation>
        </Statistics>
        <Statistics Index="15">
            <Minimum>0.136879</Minimum>
            <Maximum>11.2526</Maximum>
            <Mean>1.12565</Mean>
            <StandardDeviation>1.30054</StandardDeviation>
        </Statistics>
        <Statistics Index="16">
            <Minimum>0.000788</Minimum>
            <Maximum>0.074694</Maximum>
            <Mean>0.0133989</Mean>
            <StandardDeviation>0.0157976</StandardDeviation>
        </Statistics>
        <Statistics Index="17">
            <Minimum>0.00261</Minimum>
            <Maximum>0.367153</Maximum>
            <Mean>0.0254562</Mean>
            <StandardDeviation>0.028282</StandardDeviation>
        </Statistics>
        <Statistics Index="18">
            <Minimum>0.019176</Minimum>
            <Maximum>0.699464</Maximum>
            <Mean>0.19789</Mean>
            <StandardDeviation>0.124855</StandardDeviation>
        </Statistics>
        <Statistics Index="19">
            <Minimum>0.003139</Minimum>
            <Maximum>0.031656</Maximum>
            <Mean>0.00705584</Mean>
            <StandardDeviation>0.00533076</StandardDeviation>
        </Statistics>
        <Statistics Index="20">
            <Minimum>1.19276</Minimum>
            <Maximum>2.29115</Maximum>
            <Mean>1.85895</Mean>
            <StandardDeviation>0.253237</StandardDeviation>
        </Statistics>
        <ScalingMethod>MinimumMaximum</ScalingMethod>
    </ScalingLayer>
    <MultilayerPerceptron>
        <Architecture>20 30 3</Architecture>
        <LayersActivationFunction>HyperbolicTangent Linear</LayersActivationFunction>
        <Parameters>-1.87434 -0.048487 -0.094037 -1.63427 -0.641914 0.135413 0.495988 1.57942 0.6932 -1.54555 -0.735071 -2.23494 0.398518 -0.206613 -0.106226 1.12485 -0.809614 -1.17403 0.631022 -0.644318 0.035686 -0.573861 0.663868 -2.37625 -0.755934 0.639788 1.20262 -0.672629 0.609461 0.0312877 -0.51839 0.586778 1.79918 1.62389 0.671655 0.852464 0.272596 1.27501 -0.422658 0.411355 -1.13913 -0.792919 0.198434 -1.71596 0.553346 1.05537 -0.299172 -0.39637 -1.07029 -0.83751 -0.277574 1.29352 -0.826984 -0.00622551 -0.198388 -0.291953 0.961129 1.06473 -1.52031 -0.15742 0.495997 0.375492 -1.22177 -1.09721 -0.244808 0.0388985 0.0970317 0.055846 -0.0863409 -0.214692 -0.0410359 0.303488 -0.162122 0.171184 -0.224264 -0.633425 0.0414482 0.819827 -0.310941 -1.55453 -1.48075 1.28339 -1.57222 -0.216012 0.984766 -0.212705 0.396955 -0.46188 -0.673003 -0.944048 -0.582971 1.11523 -0.768096 -0.874823 -0.189139 -0.451683 0.310894 0.946365 0.123765 -1.03906 1.45423 -1.05161 -0.542967 -1.95859 0.437115 1.10523 0.125578 0.105068 -0.179874 0.72783 -2.74612 1.1552 0.824281 0.480114 -1.08787 -0.498477 -0.194878 -0.541592 0.500266 0.0464983 -1.68171 0.00293153 -1.31105 -0.118139 -0.93658 0.591467 -0.295076 0.814908 -1.11978 0.760575 -1.01147 -0.185297 -0.758061 -0.578086 -1.84535 -0.208811 1.29768 -0.524905 1.00916 0.560919 1.45154 0.353858 1.06178 0.211938 0.00658185 0.745477 -0.519855 -1.6891 -0.491415 0.492753 0.940945 1.09175 1.40298 -0.757685 -0.640283 0.737783 0.0361421 1.3745 -0.0324957 0.585262 0.34868 -0.0655168 0.14656 -0.27305 0.535461 -0.114516 1.61802 -0.317912 1.60292 0.926709 -1.33248 1.04855 -1.20809 0.191942 -1.23364 0.0761942 -0.732053 -0.885344 0.443727 1.05969 0.207909 0.377302 -1.14014 1.75312 0.462038 0.520626 -0.830529 -1.6091 -1.84899 1.80832 -0.422858 0.125847 -0.499816 0.632017 -0.604062 1.20502 -1.42187 -1.18803 1.19194 0.214214 -0.662705 -1.44676 1.17197 0.101376 -0.301571 -0.313901 0.459077 -0.651491 -0.625521 0.781091 -0.567397 1.34457 0.211486 0.607674 -1.59491 0.91203 0.0404228 -0.68694 -1.30363 0.0501474 0.788995 1.54871 0.563629 0.474037 0.183286 -0.327194 -0.156959 0.476915 -0.775729 0.366135 -0.371298 2.41742 -0.754745 0.484204 -0.94666 -0.388837 -0.238734 -0.716551 0.228458 -0.00637779 0.210358 1.80778 0.0442812 -0.925732 1.56758 -0.90222 -0.749281 0.834818 -1.74129 1.21514 0.521312 0.241385 -0.876913 0.0254811 -1.55855 -0.101191 -0.127947 -0.242063 -0.112043 0.143253 0.0534446 1.31585 -0.829019 -0.868987 1.45906 0.553489 1.14645 0.752905 0.669933 -0.951049 1.71175 -0.151534 -1.30075 -0.715763 1.76511 -0.0381878 2.34306 -1.56694 -0.291792 -1.01859 0.451206 -0.0638975 0.44984 -0.529499 0.372793 -0.0248309 -1.05789 -0.831018 1.61494 -0.292581 2.97205 0.523692 0.16574 0.0454589 0.226903 0.538232 0.438213 0.316477 0.717797 0.435889 -0.893462 0.975371 -0.331004 0.457881 0.453952 0.278085 1.01543 1.51961 -0.470231 -0.624322 1.3567 0.27118 -1.08416 1.27313 0.223086 0.760572 0.435369 0.737393 -1.34294 -1.40243 0.335133 -1.03528 -0.214854 1.32815 -2.1287 0.316596 -0.875478 -0.0737493 -0.581105 -1.62089 -2.07193 1.74576 -0.802948 -0.861968 -1.28773 -0.00632564 -0.849622 1.53245 -0.243116 -0.353773 -0.215355 -1.74774 0.267687 -0.737302 -0.0843751 -0.965808 0.252417 0.521257 0.0964843 -0.986894 0.237374 2.1999 0.220155 1.25201 0.552775 0.150194 0.115633 1.39298 1.47941 0.919429 -0.667546 -0.734772 -0.949046 2.31169 0.740293 0.791734 -0.60374 0.341609 -1.00967 0.374683 -1.48216 1.45557 1.81117 -0.368425 0.971514 -0.39416 0.0590632 2.33312 1.31271 0.2063 1.65504 -1.34482 1.67369 1.63449 0.325561 -0.430862 -0.171286 0.601552 1.88918 -0.669074 0.521874 0.335654 -0.648773 -0.735043 -0.161363 -1.44063 0.209993 -0.497542 -0.941242 0.545414 -0.0900109 -0.749215 -1.20436 0.708275 -0.962713 0.480058 0.332228 0.473499 -2.15331 -0.572577 -0.267525 0.0775748 -0.761838 0.36962 0.6271 1.17739 1.88402 -0.461624 0.332553 0.648795 -1.81917 0.00693847 -1.1097 0.254648 1.29989 -0.585637 0.494524 -0.976817 -0.673814 0.295933 -0.611057 -1.14185 0.299808 -2.45379 0.852127 1.14221 -0.470092 0.362951 0.944785 1.0653 0.661273 0.945611 -0.0931375 -0.629074 0.512035 -0.800086 -0.0907541 -0.452806 1.6654 0.569479 -1.31666 1.09877 -1.05787 -1.20923 0.373693 -1.00313 -0.109259 -1.13245 -1.58158 0.0150836 -0.609096 -0.0661874 -1.20215 -1.43083 0.944978 -0.82077 -1.31947 -0.340775 -0.522791 1.16295 0.177983 -2.04748 -0.904307 0.646785 -0.883911 -0.587819 1.46565 -0.92404 -1.10316 -1.13457 1.25171 -0.889939 2.15589 0.531832 -0.671977 -0.457411 1.24731 -0.651447 -0.906498 0.804056 0.0745078 0.243249 2.11678 0.407403 -1.24553 -2.03214 1.06085 -1.72283 0.7747 0.044565 -0.401396 -0.547234 -0.494324 -0.442373 -1.17027 -1.33329 -0.044725 2.84103 1.03728 0.447028 -0.473032 -0.0655281 1.09273 1.14994 0.639037 -0.699321 0.647847 0.878036 -0.476407 1.8268 0.00901167 -0.0489855 0.587617 -0.310178 1.35977 -2.19546 -0.8804 -0.433264 0.35702 0.73525 -0.747657 0.505734 0.628732 -1.7411 -0.0813556 0.483208 1.01752 -0.126324 0.185588 1.97709 0.982185 -1.04976 0.929353 -0.434177 0.742027 -0.244535 -0.0723572 0.722633 0.89593 -0.409101 -0.208815 1.39397 0.0588284 -0.396498 -0.703741 0.853793 1.55735 0.937766 0.349714 0.337056 -0.00148376 -0.51011 1.26231 1.50734 -1.52223 0.220518 0.281114 0.889144 -1.06311 -0.355937 -0.474861 1.11456 -1.5142 0.314897 0.912425 0.864434 -1.31095 -0.461829 0.833779 1.41863 -1.28548 0.203653 -1.03235 -1.24293 -1.13865 -4.02271 -1.74012 0.297162 -0.320807 2.63481 1.5426 -0.126141 -0.100728 0.447083 1.02783 1.75872 0.766986 0.694623 2.19055 0.607483 0.170164 0.170719 0.909778 1.17811 -0.196254 0.415929 -0.707145 -0.696283 0.236255 1.85826 -0.521987 0.185403 0.40802 0.501734 -0.0956566 -0.573499 1.49514 1.0332 0.261746 1.12683 -0.1371 -0.324873 0.674301 -0.666667 -0.991919 -1.03538 -1.2405 0.118183 -0.630027 -0.00324893 -0.478691 0.0107417 0.472417 0.0492639 -0.403683 -0.641404 0.759987 0.845589 -0.305025 -0.0569674 -0.274235 -0.661128 1.24249 -0.392107 0.271743 -0.400491 -0.308793 -0.38861 -0.00759689 0.389665 0.154715 0.452714 -0.733132 0.522556 0.434809 1.00768 0.0224101 0.249089 -0.00708601 -0.159496 -0.342335 1.40371 0.104701 -0.296223 0.955352 0.170019 -1.70674 1.0439 0.00497456 0.724332 0.0596099 0.742202 -0.392814 -0.521463 0.331424 0.674211 0.20017 1.77849 0.564141 -0.0499245 -0.252256 -0.0954476 -0.425151 1.2232 -0.394195 -0.291921 -0.954362 1.3926 0.058054 -0.0857549 0.026263 -1.35801 -0.0150193 -0.0371217 -0.231757 -1.09051 0.0545143 -0.683213 1.02284 -0.29415 0.248105 -0.0199734 0.176568 0.389813 -0.171646 0.0961136 -0.00649395 0.027316 -0.482505 0.295865 -0.0759832 -0.0237931 -0.057721 0.469066 0.0555437 -0.078477 -0.256643 -0.0357723 -0.686723 -0.196125 -0.0541167 0.164356 0.652814</Parameters>
    </MultilayerPerceptron>
    <ProbabilisticLayer>
        <ProbabilisticNeuronsNumber>3</ProbabilisticNeuronsNumber>
        <ProbabilisticMethod>Probability</ProbabilisticMethod>
        <DecisionThreshold>0.5</DecisionThreshold>
    </ProbabilisticLayer>
    <Outputs>
        <OutputsNumber>3</OutputsNumber>
        <Item Index="1">
            <Name>output_1</Name>
            <Units></Units>
            <Description></Description>
        </Item>
        <Item Index="2">
            <Name>output_2</Name>
            <Units></Units>
            <Description></Description>
        </Item>
        <Item Index="3">
            <Name>output_3</Name>
            <Units></Units>
            <Description></Description>
        </Item>
    </Outputs>
</NeuralNetwork>
